net
{
     node_size = (0 0);
     name = "New BN";
     tree = "(C1,C2,C3,C4,C5,C6,C7,C9)";
     UnBBayes_Color_Probabilistic_Description = "-256";
     UnBBayes_Color_Probabilistic_Explanation = "-16711936";
}

node Gender
{
     label = "C1";
     position = (80 232);
     states = ("female" "male");
}

node Sibp
{
     label = "C2";
     position = (230 9);
     states = ("0" "1-3" "4-6" ">6");
}

node PClass
{
     label = "C3";
     position = (530 96);
     states = ("1" "2" "3");
}

node Age
{
     label = "C4";
     position = (105 112);
     states = ("Children" "Adult" "Old adult");
}

node Parch
{
     label = "C6";
     position = (406 60);
     states = ("0" "1-3" ">3");
}

node Fare
{
     label = "C7";
     position = (597 231);
     states = ("low" "medium" "high" "very high");
}

node Survived
{
     label = "C5";
     position = (339 232);
     states = ("Yes" "No");
}

node Family_group
{
     label = "C2";
     position = (305 121);
     states = ("Weak" "Medium" "Strong");
}

potential (Gender)
{
 data = ( 0.35 0.65 );
}

potential (Sibp)
{
 data = ( 0.68 0.28 0.026 0.014 );
}

potential (PClass)
{
 data = ( 0.24 0.21 0.55 );
}

potential (Age)
{
 data = ( 0.158 0.783 0.059 );
}

potential (Parch)
{
 data = ( 0.761 0.2278 0.0112 );
}

potential (Fare)
{
 data = ( 0.822 0.156 0.019 0.003 );
}

potential (Survived | Fare PClass Family_group Age Gender)
{
 data = (((((( 0.6 0.4 )
( 0.4 0.6 ))
(( 0.875 0.125 )
( 0.4 0.6 ))
(( 0.6 0.4 )
( 0.34 0.66 )))
((( 0.9 0.1 )
( 0.6 0.4 ))
(( 0.9 0.1 )
( 0.4 0.6 ))
(( 0.6 0.4 )
( 0.8 0.2 )))
((( 0.6 0.4 )
( 0.6 0.4 ))
(( 0.6 0.4 )
( 0.4 0.6 ))
(( 0.6 0.4 )
( 0.4 0.6 ))))
(((( 0.9 0.1 )
( 0.9 0.1 ))
(( 0.6 0.4 )
( 0.4 0.6 ))
(( 0.4 0.6 )
( 0.4 0.6 )))
((( 0.9 0.1 )
( 0.9 0.1 ))
(( 0.9 0.1 )
( 0.3 0.7 ))
(( 0.6 0.4 )
( 0.39999998 0.59999996 )))
((( 0.6 0.4 )
( 0.6 0.4 ))
(( 0.8 0.2 )
( 0.8 0.2 ))
(( 0.4 0.6 )
( 0.4 0.6 ))))
(((( 0.8 0.2 )
( 0.3 0.7 ))
(( 0.6 0.4 )
( 0.2 0.8 ))
(( 0.4 0.6 )
( 0.4 0.6 )))
((( 0.8 0.2 )
( 0.4 0.6 ))
(( 0.6 0.4 )
( 0.4 0.6 ))
(( 0.4 0.6 )
( 0.39999998 0.59999996 )))
((( 0.9 0.1 )
( 0.6 0.4 ))
(( 0.8 0.2 )
( 0.7 0.3 ))
(( 0.4 0.6 )
( 0.4 0.6 )))))
((((( 0.9 0.1 )
( 0.6 0.4 ))
(( 0.9 0.1 )
( 0.2 0.8 ))
(( 0.6 0.4 )
( 0.6 0.4 )))
((( 0.95 0.05 )
( 0.95 0.05 ))
(( 0.8 0.2 )
( 0.3 0.7 ))
(( 0.6 0.4 )
( 0.39999998 0.59999996 )))
((( 0.99 0.01 )
( 0.8 0.2 ))
(( 0.8 0.2 )
( 0.3 0.7 ))
(( 0.7 0.3 )
( 0.6 0.4 ))))
(((( 0.9 0.1 )
( 0.87000006 0.13000001 ))
(( 0.78999996 0.21 )
( 0.4 0.6 ))
(( 0.7 0.3 )
( 0.65 0.35 )))
((( 0.95 0.05 )
( 0.95 0.05 ))
(( 0.8 0.2 )
( 0.6 0.4 ))
(( 0.6 0.4 )
( 0.39999998 0.59999996 )))
((( 0.9 0.1 )
( 0.9 0.1 ))
(( 0.7 0.3 )
( 0.6 0.4 ))
(( 0.4 0.6 )
( 0.3 0.7 ))))
(((( 0.8 0.2 )
( 0.3 0.7 ))
(( 0.8 0.2 )
( 0.3 0.7 ))
(( 0.4 0.6 )
( 0.4 0.6 )))
((( 0.8 0.2 )
( 0.4 0.6 ))
(( 0.8 0.2 )
( 0.3 0.7 ))
(( 0.6 0.4 )
( 0.39999998 0.59999996 )))
((( 0.9 0.1 )
( 0.6 0.4 ))
(( 0.8 0.2 )
( 0.7 0.3 ))
(( 0.3 0.7 )
( 0.25 0.75 )))))
((((( 0.8 0.2 )
( 0.87000006 0.13000001 ))
(( 0.78999996 0.21 )
( 0.6 0.4 ))
(( 0.7366667 0.26333332 )
( 0.4 0.6 )))
((( 0.94666666 0.05333333 )
( 0.94666666 0.05333333 ))
(( 0.8 0.2 )
( 0.3 0.7 ))
(( 0.5833333 0.41666666 )
( 0.3 0.7 )))
((( 0.99 0.01 )
( 0.99 0.01 ))
(( 0.81666666 0.18333334 )
( 0.3 0.7 ))
(( 0.68333334 0.31666666 )
( 0.3 0.7 ))))
(((( 0.8833334 0.116666675 )
( 0.87000006 0.13000001 ))
(( 0.78999996 0.21 )
( 0.6 0.4 ))
(( 0.7366667 0.26333332 )
( 0.6033333 0.39666668 )))
((( 0.94666666 0.05333333 )
( 0.94666666 0.05333333 ))
(( 0.8 0.2 )
( 0.5833333 0.41666666 ))
(( 0.5833333 0.41666666 )
( 0.39999998 0.59999996 )))
((( 0.99 0.01 )
( 0.99 0.01 ))
(( 0.81666666 0.18333334 )
( 0.7266667 0.27333334 ))
(( 0.68333334 0.31666666 )
( 0.57666665 0.42333332 ))))
(((( 0.8833334 0.116666675 )
( 0.87000006 0.13000001 ))
(( 0.78999996 0.21 )
( 0.6 0.4 ))
(( 0.7366667 0.26333332 )
( 0.6033333 0.39666668 )))
((( 0.94666666 0.05333333 )
( 0.94666666 0.05333333 ))
(( 0.8 0.2 )
( 0.5833333 0.41666666 ))
(( 0.5833333 0.41666666 )
( 0.39999998 0.59999996 )))
((( 0.99 0.01 )
( 0.99 0.01 ))
(( 0.81666666 0.18333334 )
( 0.7266667 0.27333334 ))
(( 0.68333334 0.31666666 )
( 0.57666665 0.42333332 )))))
((((( 0.8833334 0.116666675 )
( 0.87000006 0.13000001 ))
(( 0.78999996 0.21 )
( 0.6 0.4 ))
(( 0.7366667 0.26333332 )
( 0.6033333 0.39666668 )))
((( 0.94666666 0.05333333 )
( 0.94666666 0.05333333 ))
(( 0.8 0.2 )
( 0.5833333 0.41666666 ))
(( 0.5833333 0.41666666 )
( 0.39999998 0.59999996 )))
((( 0.99 0.01 )
( 0.99 0.01 ))
(( 0.81666666 0.18333334 )
( 0.7266667 0.27333334 ))
(( 0.68333334 0.31666666 )
( 0.57666665 0.42333332 ))))
(((( 0.8833334 0.116666675 )
( 0.4 0.6 ))
(( 0.78999996 0.21 )
( 0.4 0.6 ))
(( 0.7366667 0.26333332 )
( 0.4 0.6 )))
((( 0.94666666 0.05333333 )
( 0.94666666 0.05333333 ))
(( 0.8 0.2 )
( 0.4 0.6 ))
(( 0.5833333 0.41666666 )
( 0.39999998 0.59999996 )))
((( 0.99 0.01 )
( 0.99 0.01 ))
(( 0.81666666 0.18333334 )
( 0.7266667 0.27333334 ))
(( 0.68333334 0.31666666 )
( 0.57666665 0.42333332 ))))
(((( 0.7 0.3 )
( 0.2 0.8 ))
(( 0.78999996 0.21 )
( 0.4 0.6 ))
(( 0.7366667 0.26333332 )
( 0.6033333 0.39666668 )))
((( 0.94666666 0.05333333 )
( 0.4 0.6 ))
(( 0.8 0.2 )
( 0.4 0.6 ))
(( 0.5833333 0.41666666 )
( 0.39999998 0.59999996 )))
((( 0.99 0.01 )
( 0.99 0.01 ))
(( 0.81666666 0.18333334 )
( 0.7266667 0.27333334 ))
(( 0.68333334 0.31666666 )
( 0.57666665 0.42333332 ))))));
}

potential (Family_group | Parch Sibp)
{
 data = ((( 0.7 0.2 0.1 )
( 0.1 0.55 0.35 )
( 0.1 0.5 0.4 )
( 0.05 0.4 0.55 ))
(( 0.4 0.5 0.1 )
( 0.4 0.4 0.2 )
( 0.05 0.55 0.4 )
( 0.05 0.4 0.55 ))
(( 0.05 0.4 0.55 )
( 0.01 0.15 0.84 )
( 0.02 0.03 0.95 )
( 0.02 0.02 0.96 )));
}

